digraph Tree {
node [shape=box, style="filled, rounded", color="black", fontname="helvetica"] ;
edge [fontname="helvetica"] ;
0 [label="st_depression <= 1.95\ngini = 0.41\nsamples = 100.0%\nvalue = [0.71, 0.29]\nclass = no disease", fillcolor="#f0b48a"] ;
1 [label="thalassemia_normal <= 0.5\n0.29\n80.8%\n[0.82, 0.18]\nno disease", fillcolor="#eb9c64"] ;
0 -> 1 [labeldistance=2.5, labelangle=45, headlabel="True"] ;
2 [label="chest_pain_type_asymptomatic <= 0.5\n0.45\n33.6%\n[0.65, 0.35]\nno disease", fillcolor="#f3c5a3"] ;
1 -> 2 ;
3 [label="num_major_vessels <= 2.0\n0.17\n13.0%\n[0.9, 0.1]\nno disease", fillcolor="#e88e4e"] ;
2 -> 3 ;
4 [label="num_major_vessels <= 0.5\n0.12\n12.3%\n[0.93, 0.07]\nno disease", fillcolor="#e78a47"] ;
3 -> 4 ;
5 [label="0.0\n8.9%\n[1.0, 0.0]\nno disease", fillcolor="#e58139"] ;
4 -> 5 ;
6 [label="0.35\n3.4%\n[0.78, 0.22]\nno disease", fillcolor="#eca572"] ;
4 -> 6 ;
7 [label="0.0\n0.7%\n[0.0, 1.0]\nno disease", fillcolor="#399de5"] ;
3 -> 7 ;
8 [label="fasting_blood_sugar_lower than 120mg/ml <= 0.5\n0.5\n20.5%\n[0.5, 0.5]\nno disease", fillcolor="#ffffff"] ;
2 -> 8 ;
9 [label="age <= 54.0\n0.15\n4.8%\n[0.08, 0.92]\nno disease", fillcolor="#4ba6e7"] ;
8 -> 9 ;
10 [label="0.44\n1.4%\n[0.33, 0.67]\nno disease", fillcolor="#9ccef2"] ;
9 -> 10 ;
11 [label="0.0\n3.4%\n[0.0, 1.0]\nno disease", fillcolor="#399de5"] ;
9 -> 11 ;
12 [label="age <= 53.5\n0.47\n15.8%\n[0.62, 0.38]\nno disease", fillcolor="#f5cdb0"] ;
8 -> 12 ;
13 [label="0.27\n6.2%\n[0.84, 0.16]\nno disease", fillcolor="#ea995e"] ;
12 -> 13 ;
14 [label="0.49\n9.6%\n[0.43, 0.57]\nno disease", fillcolor="#cee6f8"] ;
12 -> 14 ;
15 [label="rest_ecg_normal <= 0.5\n0.1\n47.3%\n[0.95, 0.05]\nno disease", fillcolor="#e68844"] ;
1 -> 15 ;
16 [label="chest_pain_type_asymptomatic <= 0.5\n0.19\n23.3%\n[0.89, 0.11]\nno disease", fillcolor="#e89051"] ;
15 -> 16 ;
17 [label="st_slope_upsloping <= 0.5\n0.13\n16.4%\n[0.93, 0.07]\nno disease", fillcolor="#e78b48"] ;
16 -> 17 ;
18 [label="0.0\n3.4%\n[1.0, 0.0]\nno disease", fillcolor="#e58139"] ;
17 -> 18 ;
19 [label="0.17\n13.0%\n[0.91, 0.09]\nno disease", fillcolor="#e88e4d"] ;
17 -> 19 ;
20 [label="age <= 62.0\n0.34\n6.8%\n[0.79, 0.21]\nno disease", fillcolor="#eca36f"] ;
16 -> 20 ;
21 [label="0.0\n5.5%\n[1.0, 0.0]\nno disease", fillcolor="#e58139"] ;
20 -> 21 ;
22 [label="0.0\n1.4%\n[0.0, 1.0]\nno disease", fillcolor="#399de5"] ;
20 -> 22 ;
23 [label="0.0\n24.0%\n[1.0, 0.0]\nno disease", fillcolor="#e58139"] ;
15 -> 23 ;
24 [label="resting_blood_pressure <= 107.0\n0.35\n19.2%\n[0.22, 0.78]\nno disease", fillcolor="#72b9ec"] ;
0 -> 24 [labeldistance=2.5, labelangle=-45, headlabel="False"] ;
25 [label="0.0\n0.7%\n[1.0, 0.0]\nno disease", fillcolor="#e58139"] ;
24 -> 25 ;
26 [label="st_depression <= 2.85\n0.3\n18.5%\n[0.19, 0.81]\nno disease", fillcolor="#66b3eb"] ;
24 -> 26 ;
27 [label="num_major_vessels <= 2.5\n0.45\n10.3%\n[0.35, 0.65]\nno disease", fillcolor="#a4d2f3"] ;
26 -> 27 ;
28 [label="chol <= 256.0\n0.38\n8.9%\n[0.25, 0.75]\nno disease", fillcolor="#7bbeee"] ;
27 -> 28 ;
29 [label="0.32\n8.2%\n[0.2, 0.8]\nno disease", fillcolor="#6ab6ec"] ;
28 -> 29 ;
30 [label="0.0\n0.7%\n[1.0, 0.0]\nno disease", fillcolor="#e58139"] ;
28 -> 30 ;
31 [label="rest_ecg_left ventricular hypertrophy <= 0.5\n0.38\n1.4%\n[0.75, 0.25]\nno disease", fillcolor="#eeab7b"] ;
27 -> 31 ;
32 [label="0.0\n0.7%\n[0.0, 1.0]\nno disease", fillcolor="#399de5"] ;
31 -> 32 ;
33 [label="0.0\n0.7%\n[1.0, 0.0]\nno disease", fillcolor="#e58139"] ;
31 -> 33 ;
34 [label="chol <= 189.0\n0.08\n8.2%\n[0.04, 0.96]\nno disease", fillcolor="#42a1e6"] ;
26 -> 34 ;
35 [label="st_depression <= 4.6\n0.38\n1.4%\n[0.25, 0.75]\nno disease", fillcolor="#7bbeee"] ;
34 -> 35 ;
36 [label="0.0\n0.7%\n[1.0, 0.0]\nno disease", fillcolor="#e58139"] ;
35 -> 36 ;
37 [label="0.0\n0.7%\n[0.0, 1.0]\nno disease", fillcolor="#399de5"] ;
35 -> 37 ;
38 [label="0.0\n6.8%\n[0.0, 1.0]\nno disease", fillcolor="#399de5"] ;
34 -> 38 ;
}