digraph Tree {
node [shape=box, style="filled, rounded", color="black", fontname="helvetica"] ;
edge [fontname="helvetica"] ;
0 [label="resting_blood_pressure <= 158.0\ngini = 0.38\nsamples = 100.0%\nvalue = [0.74, 0.26]\nclass = no disease", fillcolor="#eeac7d"] ;
1 [label="thalassemia_reversible <= 0.5\n0.33\n86.5%\n[0.79, 0.21]\nno disease", fillcolor="#eca26d"] ;
0 -> 1 [labeldistance=2.5, labelangle=45, headlabel="True"] ;
2 [label="chol <= 167.0\n0.15\n58.3%\n[0.92, 0.08]\nno disease", fillcolor="#e78d4b"] ;
1 -> 2 ;
3 [label="0.0\n0.6%\n[0.0, 1.0]\ndisease", fillcolor="#399de5"] ;
2 -> 3 ;
4 [label="chol <= 313.0\n0.13\n57.7%\n[0.93, 0.07]\nno disease", fillcolor="#e78b48"] ;
2 -> 4 ;
5 [label="num_major_vessels <= 0.5\n0.1\n51.3%\n[0.95, 0.05]\nno disease", fillcolor="#e78844"] ;
4 -> 5 ;
6 [label="0.0\n32.7%\n[1.0, 0.0]\nno disease", fillcolor="#e58139"] ;
5 -> 6 ;
7 [label="0.27\n18.6%\n[0.84, 0.16]\nno disease", fillcolor="#ea995e"] ;
5 -> 7 ;
8 [label="num_major_vessels <= 1.5\n0.36\n6.4%\n[0.77, 0.23]\nno disease", fillcolor="#eda774"] ;
4 -> 8 ;
9 [label="0.0\n4.5%\n[1.0, 0.0]\nno disease", fillcolor="#e58139"] ;
8 -> 9 ;
10 [label="0.38\n1.9%\n[0.25, 0.75]\ndisease", fillcolor="#7bbeee"] ;
8 -> 10 ;
11 [label="st_slope_flat <= 0.5\n0.5\n28.2%\n[0.52, 0.48]\nno disease", fillcolor="#fdf4ee"] ;
1 -> 11 ;
12 [label="chol <= 225.0\n0.44\n14.7%\n[0.67, 0.33]\nno disease", fillcolor="#f2c09c"] ;
11 -> 12 ;
13 [label="chest_pain_type_asymptomatic <= 0.5\n0.48\n6.4%\n[0.4, 0.6]\ndisease", fillcolor="#bddef6"] ;
12 -> 13 ;
14 [label="0.44\n2.6%\n[0.67, 0.33]\nno disease", fillcolor="#f2c09c"] ;
13 -> 14 ;
15 [label="0.35\n3.8%\n[0.22, 0.78]\ndisease", fillcolor="#72b9ec"] ;
13 -> 15 ;
16 [label="st_depression <= 1.2\n0.2\n8.3%\n[0.89, 0.11]\nno disease", fillcolor="#e89152"] ;
12 -> 16 ;
17 [label="0.0\n6.4%\n[1.0, 0.0]\nno disease", fillcolor="#e58139"] ;
16 -> 17 ;
18 [label="0.44\n1.9%\n[0.33, 0.67]\ndisease", fillcolor="#9ccef2"] ;
16 -> 18 ;
19 [label="resting_blood_pressure <= 107.5\n0.47\n13.5%\n[0.38, 0.62]\ndisease", fillcolor="#b4daf5"] ;
11 -> 19 ;
20 [label="0.0\n0.6%\n[1.0, 0.0]\nno disease", fillcolor="#e58139"] ;
19 -> 20 ;
21 [label="chest_pain_type_non-anginal pain <= 0.5\n0.42\n12.8%\n[0.3, 0.7]\ndisease", fillcolor="#8ec7f0"] ;
19 -> 21 ;
22 [label="0.36\n10.9%\n[0.24, 0.76]\ndisease", fillcolor="#78bced"] ;
21 -> 22 ;
23 [label="0.48\n1.9%\n[0.6, 0.4]\nno disease", fillcolor="#f6d5bd"] ;
21 -> 23 ;
24 [label="st_depression <= 0.9\n0.49\n13.5%\n[0.44, 0.56]\ndisease", fillcolor="#d3e9f9"] ;
0 -> 24 [labeldistance=2.5, labelangle=-45, headlabel="False"] ;
25 [label="0.0\n5.1%\n[1.0, 0.0]\nno disease", fillcolor="#e58139"] ;
24 -> 25 ;
26 [label="st_slope_upsloping <= 0.5\n0.3\n8.3%\n[0.18, 0.82]\ndisease", fillcolor="#65b3eb"] ;
24 -> 26 ;
27 [label="sex_male <= 0.5\n0.18\n7.1%\n[0.1, 0.9]\ndisease", fillcolor="#4fa8e8"] ;
26 -> 27 ;
28 [label="0.0\n3.2%\n[0.0, 1.0]\ndisease", fillcolor="#399de5"] ;
27 -> 28 ;
29 [label="st_depression <= 3.8\n0.35\n3.8%\n[0.22, 0.78]\ndisease", fillcolor="#72b9ec"] ;
27 -> 29 ;
30 [label="0.0\n3.2%\n[0.0, 1.0]\ndisease", fillcolor="#399de5"] ;
29 -> 30 ;
31 [label="0.0\n0.6%\n[1.0, 0.0]\nno disease", fillcolor="#e58139"] ;
29 -> 31 ;
32 [label="0.0\n1.3%\n[1.0, 0.0]\nno disease", fillcolor="#e58139"] ;
26 -> 32 ;
}