digraph Tree {
node [shape=box, style="filled, rounded", color="black", fontname="helvetica"] ;
edge [fontname="helvetica"] ;
0 [label="num_major_vessels <= 0.5\ngini = 0.39\nsamples = 100.0%\nvalue = [0.73, 0.27]\nclass = no disease", fillcolor="#efaf82"] ;
1 [label="resting_blood_pressure <= 177.0\n0.21\n63.2%\n[0.88, 0.12]\nno disease", fillcolor="#e99254"] ;
0 -> 1 [labeldistance=2.5, labelangle=45, headlabel="True"] ;
2 [label="chest_pain_type_typical angina <= 0.5\n0.16\n61.8%\n[0.91, 0.09]\nno disease", fillcolor="#e88d4c"] ;
1 -> 2 ;
3 [label="st_depression <= 1.9\n0.17\n58.6%\n[0.91, 0.09]\nno disease", fillcolor="#e88e4d"] ;
2 -> 3 ;
4 [label="thalassemia_normal <= 0.5\n0.1\n52.0%\n[0.95, 0.05]\nno disease", fillcolor="#e68844"] ;
3 -> 4 ;
5 [label="0.32\n13.2%\n[0.8, 0.2]\nno disease", fillcolor="#eca06a"] ;
4 -> 5 ;
6 [label="0.02\n38.8%\n[0.99, 0.01]\nno disease", fillcolor="#e5823b"] ;
4 -> 6 ;
7 [label="st_slope_upsloping <= 0.5\n0.5\n6.6%\n[0.46, 0.54]\ndisease", fillcolor="#e3f1fb"] ;
3 -> 7 ;
8 [label="0.49\n5.9%\n[0.42, 0.58]\ndisease", fillcolor="#c6e3f8"] ;
7 -> 8 ;
9 [label="0.0\n0.7%\n[1.0, 0.0]\nno disease", fillcolor="#e58139"] ;
7 -> 9 ;
10 [label="0.0\n3.3%\n[1.0, 0.0]\nno disease", fillcolor="#e58139"] ;
2 -> 10 ;
11 [label="0.0\n1.3%\n[0.0, 1.0]\ndisease", fillcolor="#399de5"] ;
1 -> 11 ;
12 [label="st_depression <= 2.7\n0.49\n36.8%\n[0.42, 0.58]\ndisease", fillcolor="#cae5f8"] ;
0 -> 12 [labeldistance=2.5, labelangle=-45, headlabel="False"] ;
13 [label="chest_pain_type_asymptomatic <= 0.5\n0.49\n28.9%\n[0.57, 0.43]\nno disease", fillcolor="#f9e0cf"] ;
12 -> 13 ;
14 [label="st_depression <= 1.95\n0.38\n13.2%\n[0.74, 0.26]\nno disease", fillcolor="#eead7e"] ;
13 -> 14 ;
15 [label="thalassemia_fixed <= 0.5\n0.32\n12.5%\n[0.8, 0.2]\nno disease", fillcolor="#eca06a"] ;
14 -> 15 ;
16 [label="0.23\n11.2%\n[0.87, 0.13]\nno disease", fillcolor="#e99457"] ;
15 -> 16 ;
17 [label="0.0\n1.3%\n[0.0, 1.0]\ndisease", fillcolor="#399de5"] ;
15 -> 17 ;
18 [label="0.0\n0.7%\n[0.0, 1.0]\ndisease", fillcolor="#399de5"] ;
14 -> 18 ;
19 [label="num_major_vessels <= 1.5\n0.49\n15.8%\n[0.42, 0.58]\ndisease", fillcolor="#c8e4f8"] ;
13 -> 19 ;
20 [label="age <= 60.5\n0.46\n7.9%\n[0.64, 0.36]\nno disease", fillcolor="#f3c7a7"] ;
19 -> 20 ;
21 [label="0.22\n4.6%\n[0.88, 0.12]\nno disease", fillcolor="#e99355"] ;
20 -> 21 ;
22 [label="0.44\n3.3%\n[0.33, 0.67]\ndisease", fillcolor="#9ccef2"] ;
20 -> 22 ;
23 [label="resting_blood_pressure <= 132.0\n0.36\n7.9%\n[0.24, 0.76]\ndisease", fillcolor="#76bbed"] ;
19 -> 23 ;
24 [label="0.48\n4.6%\n[0.4, 0.6]\ndisease", fillcolor="#bddef6"] ;
23 -> 24 ;
25 [label="0.0\n3.3%\n[0.0, 1.0]\ndisease", fillcolor="#399de5"] ;
23 -> 25 ;
26 [label="0.0\n7.9%\n[0.0, 1.0]\ndisease", fillcolor="#399de5"] ;
12 -> 26 ;
}